0.838821 21522 242 53 40
100
2.15498 0.210582 0.603001 0.259929 0.860945 -0.36774 -0.0446379 0.407228 0.172252 0.149028 0.515046 0.24957 0.449583 0.590911 0.12545 0.108793 0.110992 0.115836 0.266807 0.223026 0.0768466 -0.293692 -0.370858 0.273455 -0.176998 0.010885 0.405906 -0.24884 0.0667544 0.305438 -0.110125 0.0553225 0.132622 0.0507762 -0.0707533 0.0280415 -0.0461625 -0.142995 0.00203099 0.236501 -0.149155 0.107002 0.053582 0.121235 0.181934 -0.246039 -0.143877 0.182537 0.0990128 0.0751821 0.0455844 -0.0543676 0.00982466 -0.0644129 -0.144811 -0.0179202 -0.0137244 0.0988421 0.105121 0.019555 -0.0582221 0.0282226 0.1478 0.164735 0.179319 0.0464179 0.160494 0.0720266 -0.0567519 -0.0393251 -0.135114 -0.0379435 0.054387 -0.197241 0.107644 0.0276151 0.0828952 -0.0410934 0.0883799 0.04309 0.143666 -0.0190297 0.0823073 0.0657256 -0.0212453 0.00988961 -0.081825 -0.0520653 0.0735882 0.142027 0.0203883 -0.213073 0.0638314 -0.136233 0.0535328 -0.296218 0.370513 0.387445 0.112794 0.0409413
-4.86905
-7.27346 -0.28381 1.73479 5.67077 -0.777914 4.40144 -4.23824 -3.73723 1.53338 2.28385
0.105602
0.581493 -5.7529 3.41954 -2.69377 -0.708396 4.05365 -1.26528 1.90167 -1.18982 -3.34468
-0.758078
2.50034 2.40744 -2.91313 -1.88696 1.7137 -0.27106 -1.5736 3.16786 0.775864 0.478142
0.475185
-0.370198 -4.28939 -1.28127 -0.289786 -5.514 3.40932 4.47226 1.85622 -1.06986 -2.54949
-0.978513
7.70325 0.476277 -5.1073 2.00048 2.2143 0.932158 -0.675283 -0.286877 -2.8108 2.37384
-0.160277
-2.08575 0.032482 6.32762 -2.77603 -0.773028 1.96195 -2.88957 4.09676 0.116786 1.11138
0.0635339
2.34434 -0.52587 -0.561729 -1.03528 0.448586 3.34459 1.66274 -5.06417 -4.19304 2.79943
0.0438023
2.9686 -0.823455 -6.19194 0.740172 4.3749 7.97556 0.91565 1.35818 -1.42986 -2.18722
-0.369069
-1.85727 2.53507 5.01931 0.0139594 0.37955 4.45973 -3.11971 -4.04875 -1.63091 2.81695
-0.400403
0.0522237 -2.73273 -1.67631 -0.828442 -4.86648 2.28433 4.51292 3.17054 1.81158 1.82534
-0.0892274
3.03438 -5.75419 0.0612364 -5.13691 -3.55312 1.9049 0.299657 0.32987 4.10697 3.29875
1.35341
-2.57883 -0.944471 -8.66513 -3.03942 1.41108 -5.25461 1.20938 -0.470225 1.43219 -3.81926
-0.243436
3.28948 -2.82097 1.28266 1.56484 2.75314 0.734725 -1.38714 -0.015187 -1.98544 -1.41034
-1.03401
6.58419 1.12379 5.17503 1.78446 -0.218891 2.67419 1.64528 -1.05243 -1.34674 -4.70073
-0.634085
1.60101 -2.00332 2.17469 9.95416 0.0240633 2.82632 -1.2424 1.62014 -1.03387 -4.76639
0.335621
1.14209 -1.38803 1.7163 1.20355 -3.82867 3.12726 -1.19488 -3.92872 0.587619 -8.47163
-0.536093
4.5295 1.88404 4.11027 -0.586928 -3.78938 3.11179 -4.13173 -5.36016 -3.28178 -2.19299
0.259879
-2.07745 1.42409 0.89486 -2.83685 -0.363415 4.26705 0.548211 -1.85008 -0.0996346 -4.04729
0.319954
0.252339 -4.42489 0.507795 -1.16531 -1.56529 2.93379 0.528896 -0.140324 -5.86851 1.80652
-0.321139
-1.31965 -4.50701 3.89648 3.36639 -0.424258 -4.85052 2.81102 0.825292 -8.24163 2.81786
-0.802412
-1.71187 0.749657 6.28807 2.00033 0.316888 3.76075 0.169269 4.10622 -3.92458 4.17316
-0.19665
3.15316 0.0826384 0.703883 -0.452607 0.664904 2.50422 -4.67477 -0.075779 2.49138 -5.99326
0.0524877
2.47165 -0.889323 -4.19679 0.592938 -8.31696 3.25789 -5.46275 2.27801 1.39759 -2.01259
0.657288
-4.81004 2.70994 -0.780453 -0.0221957 1.05348 1.44334 -0.52395 0.488914 -0.742583 3.40053
0.123877
-1.40848 0.723795 -2.13617 -4.00306 -9.51406 2.53257 -0.516357 1.52555 3.47492 0.310811
0.190164
0.0453285 -4.49935 -1.23073 -4.07298 -2.26258 2.53906 2.99449 1.05028 2.90588 -3.63195
-0.229788
2.39177 0.321434 1.08177 -1.4387 -5.0004 0.367641 -5.11606 1.22516 -4.5415 -0.991084
0.321717
-0.485828 -4.2404 -0.757093 4.04167 0.507591 -3.17757 0.714133 -0.0720037 3.3578 7.50789
0.666205
-3.28808 0.624813 1.4 -3.60291 -0.887742 1.13005 0.72853 0.355635 -0.748727 -5.62867
1.0031
-6.19058 1.09632 0.111473 -6.20686 5.83233 2.36273 -0.672747 1.11662 0.770214 4.27872
0.00591033
-0.0479035 5.14987 -6.38331 -3.605 0.154693 -0.866765 1.96914 -2.32833 1.78222 0.209746
-1.31322
8.54772 0.169493 -4.29416 -1.21912 -2.05068 1.8709 -2.21326 -1.9404 3.69598 8.70726
-0.266287
0.167395 0.96089 -6.21355 -6.48176 1.50025 0.866256 2.39666 2.66253 -0.597954 2.77877
-0.124624
1.93261 -3.48307 0.460815 9.07835 -3.98979 1.00445 0.974264 -1.29414 -2.08286 6.69962
-0.0563226
-1.39135 2.49204 -1.54198 -1.22067 0.0602273 1.80379 3.04858 -0.611655 2.25359 -1.93754
-0.569079
0.637787 1.38541 1.07896 2.35547 -2.83568 1.08918 0.474495 0.909158 -1.95912 1.5669
0.427945
0.255967 0.546677 -2.51791 -2.82018 1.10296 -1.03704 1.88471 -4.77802 0.516014 -0.284345
-0.832888
8.65914 -3.56132 -3.41004 -0.940446 -3.6552 5.2318 -0.143458 -1.13417 -4.26611 1.72961
-0.37647
2.93868 1.73529 -1.23218 0.402316 7.45746 0.178638 -5.81068 -0.632622 -4.31526 7.76327
-0.404388
2.22142 4.39584 -2.68411 2.35265 3.49646 1.47045 0.878245 -2.76189 2.54717 -7.38388
0.331259
-0.0699235 0.423142 5.78351 1.64789 -7.30591 2.74017 -3.81839 -4.87267 1.20176 4.26241
0.537423
-2.11855 -6.96672 1.17497 -1.11588 4.10865 -5.77492 4.19203 0.752547 0.18438 4.1921
-0.118815
-0.911171 -1.67773 -5.17169 10.4045 -0.0351277 1.6681 4.3423 3.41289 -0.562825 6.72937
-0.180578
5.2614 -0.032819 -6.56303 0.656483 1.17953 2.19728 -1.43661 -1.92315 0.999394 1.55683
0.596257
-0.987997 -4.26558 1.44554 -0.111676 2.84161 3.3572 2.48692 -3.27365 0.232819 1.27689
-0.0716236
0.427287 -3.10065 0.669454 2.16072 1.94353 -1.71696 1.39303 1.15961 -1.19066 -2.94353
0.173737
-2.98759 1.09117 -0.787587 -3.84054 -3.63589 1.46681 0.705141 1.48891 -0.84803 -0.318262
-0.347742
-1.5877 -0.56226 -3.73074 3.29064 -2.41943 6.46524 4.12962 3.34949 2.66242 -0.709853
0.42158
0.277674 -6.15472 1.71154 2.51409 2.68179 -5.72499 0.430109 -1.26396 1.7847 1.33454
-0.68557
-0.637616 3.08313 0.849861 2.67327 -3.52814 -2.1664 -0.698511 1.7059 -2.70085 9.11962
-0.3045
0.33291 -5.07423 0.202323 -1.79003 -4.04021 5.10331 0.920018 4.25695 3.67759 -0.195091
-0.659218
1.57148 2.03534 -3.59687 1.41966 -3.0638 -3.40079 -0.306534 3.47215 3.29025 -0.627993
0.438855
0.023138 1.62885 -7.4521 2.43319 4.0539 -5.23222 0.707511 -0.456296 -3.95708 0.245782
0.556655
-2.1509 -2.97155 -1.23655 -1.83476 1.01457 5.86705 3.23876 -0.00880635 -1.62085 -2.01582
0.41862
-3.51173 2.56915 -6.39417 -1.00365 -0.819317 0.141904 -5.73514 6.69639 -2.20656 -2.64092
1.08274
-2.79698 -1.17785 -8.66333 -0.0984822 -0.997678 -6.41852 -3.33825 3.73571 -9.58437 -1.97981
0.504974
1.59987 -3.65303 0.45043 1.13979 -2.25416 2.63059 1.01228 -4.41956 -0.182573 1.98205
-0.0366524
-2.22865 5.2948 -6.11216 3.76619 -6.16294 -1.61626 4.91564 0.673472 1.23316 0.665909
0.215645
0.253491 -7.2474 -1.80217 1.75079 0.875202 1.14727 5.20645 1.52374 0.384929 1.32501
-0.615948
0.913277 -3.20884 4.1344 2.08259 -6.78126 -4.38638 0.963124 2.38636 -5.23896 3.16808
0.276122
-2.3359 -3.9059 2.20335 5.6276 0.991651 2.28143 -1.99524 3.89796 -1.39736 -1.49945
0.0675825
-0.770877 -0.910749 -2.19388 1.85078 -1.10395 0.541194 1.41821 0.735826 1.82163 3.57752
-0.0163354
-0.790467 -2.54653 1.53613 -5.08178 1.32086 -5.03604 1.4064 1.34868 -1.71971 -0.573448
0.447628
-0.954279 -1.73168 -0.621841 -1.77793 -1.66974 2.22326 -0.83521 1.62404 1.2778 -4.29266
-0.391139
2.84748 -1.01028 -6.3792 -4.9291 0.980519 -2.45122 3.7896 -0.5696 2.13266 0.650569
-0.887133
-1.17849 -7.48634 5.965 -2.64462 2.36551 -1.47395 0.182441 10.8481 -4.34637 5.23904
0.448943
0.75298 0.62789 0.464121 -3.60287 -3.62242 5.20403 -5.09608 -2.15771 1.89996 -0.396227
-0.913411
1.27661 -0.0243824 1.18319 -2.10201 1.43163 2.63089 3.03948 2.00091 -5.12721 0.750621
-0.420144
2.34145 -4.21502 -1.75037 -0.295174 -0.406285 -3.18407 2.25498 0.662805 1.65128 8.43866
-0.694459
3.06827 2.59671 -6.12386 -9.28548 2.62504 -3.63712 -2.27569 3.72189 1.228 -2.02986
0.278848
-2.10397 0.945593 -1.9495 2.36241 4.10699 2.95463 -0.766389 0.757545 -1.33073 0.473883
-0.675334
3.04668 -2.62183 2.35712 2.32249 4.04056 -5.20389 -1.21802 1.11684 -4.14244 -1.15769
0.853468
-1.89276 3.83873 -2.22605 -5.80501 3.17308 3.82971 -3.56699 -3.64652 -3.62349 -0.807451
0.43222
2.0377 3.5559 -5.94776 -1.73224 -1.71213 3.45503 -4.97789 -2.84538 -0.769561 -4.0489
0.413519
0.732327 -2.96851 -3.61741 -1.61988 -1.28491 -1.59165 -2.12845 1.07169 1.65304 -2.37231
-0.501253
-2.71331 6.02675 -0.865368 -0.681933 1.25608 3.86171 -3.4572 3.09981 -1.04724 7.76366
0.456617
-0.0354546 -4.82751 3.014 -3.34706 -5.36092 -1.89963 2.19919 -4.1186 2.36476 -1.20469
-0.133283
-0.35022 -2.52674 0.585948 1.50424 -2.66819 -3.12274 2.19883 -0.181975 3.54249 2.42652
-0.92499
3.52152 2.28738 -2.16684 -0.748373 1.04107 -2.83578 -0.443747 1.75959 -9.47485 -3.30504
0.503923
-0.391567 0.586984 -3.43459 1.28888 -3.39709 1.18607 0.122368 -0.712565 -1.09916 -8.93337
-0.0656822
1.11498 0.724398 -1.2523 1.85841 -1.4254 -4.77611 -2.38177 -2.4442 5.17066 6.58857
0.388803
-0.352048 8.30615 -4.71103 4.43975 -2.27212 2.35482 -5.52041 -1.86871 0.189596 0.337166
-0.525568
1.18538 3.87398 -5.32722 2.94448 0.741381 -1.95047 -2.39158 5.6914 -1.91686 -1.25203
0.659991
-2.74809 -2.15568 -0.0211639 -0.923047 -0.941222 2.97521 5.87529 -2.64581 2.51046 -2.22877
-0.428818
1.08805 -5.30474 1.30557 3.75647 -3.80584 -2.4381 2.76012 3.90439 -2.50238 2.33378
0.633511
-0.314591 -2.84133 3.38512 6.82967 3.66293 -3.852 -2.52725 -2.48957 0.0295976 -4.46217
-0.634553
5.33664 -0.509928 -6.17255 -0.834916 1.32495 0.998337 -2.1939 2.61418 -3.89767 6.31319
0.0477171
-0.527257 -0.504979 -0.35394 0.0572143 -0.661235 -0.47852 -2.0894 2.85898 3.33297 -2.90948
-0.0142117
0.791329 0.879422 -4.01141 4.7484 -3.87548 -3.42924 -1.28353 2.334 -3.6692 3.63904
0.294947
1.35767 -5.13512 -1.49585 -1.20808 2.49091 -3.31084 -0.865298 1.46155 -1.02508 -1.22394
0.474323
-0.759575 -0.422399 -1.05123 3.05184 -2.55778 4.07418 -0.50136 -2.30579 -3.97654 2.26654
0.112765
3.18366 -1.64406 -3.97166 -0.14423 2.82274 -1.62129 -2.38845 -1.46146 -5.03664 0.453221
-0.295798
3.93547 -0.784572 -2.63228 -2.38945 3.33109 2.80989 1.59063 -3.37954 -3.23666 -1.96584
0.0419378
-0.61308 0.00162021 1.77693 -1.15884 4.26758 2.20111 -5.21 0.897027 0.246233 1.98478
-0.26281
3.08368 -3.77557 2.25716 -1.95488 -2.06375 -3.29216 -4.38447 0.406994 1.54158 -0.481734
0.466943
0.0683473 -2.89749 -6.22291 -4.37486 0.161359 -1.12308 -6.86997 3.60714 0.400312 -1.65632
0.299755
-0.434321 -4.56701 3.22475 -1.18563 0.532682 0.560365 -0.311297 0.707941 -5.58055 -0.981303
-1.00934
3.26518 -2.59021 -2.55435 0.767328 -1.65843 1.31525 -0.914097 2.98854 -1.18192 -2.19189
-0.433378
0.0288022 -2.41951 1.86831 0.137345 3.37283 -0.584876 2.32083 1.76256 2.35067 -1.09867
0.250077
-1.07986 -2.15708 1.7305 0.392981 1.84378 -4.13381 -0.988733 0.813773 0.932871 2.21286
10 10
1 0 0 0.009303 0 0 0 0 0 0
147 1.19486 4.51285 1551.26 0.157971 1542.55 4.5111 0.788967 2.13175 0.065174
