0.747198 18630 300 16 187
100
1.82937 0.63889 0.121663 0.215147 0.787535 0.231909 -0.672697 0.0596541 0.261018 0.337479 -0.11722 0.57144 0.373753 -0.161509 0.550381 0.327214 -0.0799993 -0.0862609 0.192813 0.135103 -0.0161473 -0.339005 0.296014 0.113313 0.0451497 0.0382663 -0.0274758 0.0885054 -0.593588 0.324544 0.587496 0.301164 0.0878179 0.0366588 0.124197 -0.266168 -0.100355 0.187179 0.129099 -0.0343669 0.0496232 0.0240367 -0.0530934 0.129097 0.163836 -0.0073947 0.149354 -0.0566728 -0.0826748 -0.362593 0.313808 -0.217307 0.203908 0.179876 -0.12995 0.0701801 -0.000813859 0.0866121 0.0921175 0.175823 0.180197 -0.0842336 0.13491 0.0105955 0.115842 0.280759 0.193876 -0.094407 -0.0105942 -0.0824778 0.129681 -0.0233701 0.00912195 -0.00354291 -0.104937 0.123461 0.0273873 0.00649888 0.149091 0.0611615 0.128812 -0.0782451 0.0320942 -0.0858827 -0.0191367 -0.0568201 0.0245952 0.205207 0.217388 -0.0388556 0.0821006 -0.0666336 0.0746154 -0.0711447 0.05621 -0.260869 0.266927 0.220461 -0.108017 0.118236
-4.08479
1.00846 -0.909852 -3.291 3.61414 -1.86377 1.40573 -3.54336 3.94837 -5.31879 2.37563
-0.576014
3.81243 -2.86116 5.39527 0.262758 2.83682 -5.78183 -5.34165 4.04148 0.614278 1.22885
0.400276
-2.90978 4.47588 -3.23047 -0.00122908 -3.53689 4.84187 -0.442143 1.64047 -3.98305 1.41747
-0.0408993
-0.305456 -3.2869 -3.39677 0.798078 1.42285 -0.349621 1.21166 6.47897 1.13003 0.661986
0.193956
5.72513 -5.45228 -0.399039 7.23711 2.715 -1.22906 -1.55381 -1.93003 0.134929 -1.23512
-0.72547
-1.46904 -1.7994 1.78577 4.91546 -0.338678 -0.632683 2.86299 0.986837 0.656398 -4.5421
0.408441
-4.63196 -0.189917 1.07988 -3.39113 -3.23737 -2.09645 -4.19252 -1.70273 -0.62605 -0.945576
-0.473083
-2.45252 -0.938998 -1.98473 -0.362062 -0.261811 5.16675 2.63195 2.67164 -3.15877 5.92513
-0.239505
2.92639 -1.7052 -3.09493 -3.79971 2.65868 6.53938 -1.7827 -0.851599 4.70768 -2.87197
0.628284
-1.87942 -0.862273 -2.92896 -2.43015 1.28531 4.10951 3.89174 -4.2604 -2.10666 -1.12223
0.116659
1.22639 1.21088 -7.30343 -0.756339 2.8781 3.99659 -0.0917965 -0.911099 -5.88399 2.57361
-0.336929
4.40591 -5.60584 -3.61199 0.704734 -0.913932 3.15871 3.82091 3.16018 -2.8933 -4.33506
0.832983
-5.16692 4.59853 -2.92205 -2.16396 5.3839 -0.279824 -4.40392 3.52697 -3.20683 0.514338
0.403394
-5.19872 -0.719507 0.219874 0.573366 0.756667 -1.83278 0.439305 -2.3609 2.58225 4.98432
0.489713
0.0340968 -3.78632 0.578796 -2.43415 -6.23573 -6.57918 -2.54451 0.0355666 -2.17692 -6.19665
-0.594979
0.747137 -1.40095 5.81773 0.856276 5.53034 -1.69768 -3.05599 -3.78599 -8.11848 2.9793
0.300822
1.57136 -1.37586 -3.06319 1.61839 0.197405 -1.07679 -7.98409 -0.5725 -1.43604 -1.42796
0.550381
-4.26279 -0.718094 -2.82228 2.42717 -0.993282 -3.46757 -2.48867 -1.92295 0.903157 1.14943
0.512946
1.22365 -4.28489 -2.41029 4.08301 1.51263 0.30379 -1.38241 -5.05266 -3.49493 -0.659401
-0.319778
0.564809 -2.07825 -0.50675 -1.96388 0.126267 -1.31007 -0.243263 5.21266 0.483434 3.23688
-0.236775
0.36432 3.648 0.524768 -2.25112 -5.51597 -0.972061 -3.847 3.34257 1.15382 -1.97485
0.0997546
-1.79757 -1.59958 1.25071 -1.647 4.95292 0.741562 -1.16666 1.66258 -0.654151 -1.19383
0.220195
0.183884 1.20554 -2.96372 -6.1235 4.78809 0.752334 -1.71231 0.940129 2.98657 -4.81585
-0.553609
-0.490653 -2.42842 1.34869 -1.06639 0.837541 1.03015 -3.57501 6.6468 0.387627 1.93998
-0.275856
-0.816551 -1.6913 -0.955614 -6.70621 -2.73057 2.79873 -2.75751 6.64548 -2.71021 4.41479
-0.178264
-0.969442 -1.80677 4.67199 -2.21207 -3.89963 2.04094 -0.00288741 -2.06631 0.288422 2.36821
-0.326431
1.63235 -1.57809 -0.459148 -0.0978964 1.23921 1.68233 -0.529148 2.61916 -1.88779 5.71703
-0.426265
5.17195 -4.50745 2.3068 0.717572 -4.78685 -0.77928 -0.414824 1.42147 1.36812 -0.0342765
0.102507
-2.9333 -2.11404 1.53345 -1.802 4.14886 2.81539 -1.16655 0.7282 2.39211 1.69735
-0.666962
4.64277 -1.06155 -1.18881 3.91492 -4.80904 -0.226403 -2.76087 2.41452 -5.90518 -0.651846
0.481858
-0.848184 -0.551365 -0.540306 -1.18921 -0.120946 -2.41694 -8.09209 2.26735 -6.39903 5.0123
-1.08891
6.52966 3.22826 -1.03854 -1.01876 -4.07753 1.10435 -4.64825 0.976835 -0.601773 -2.87899
0.270234
-3.14521 -2.49617 -0.537085 -3.10991 -2.31193 -4.95434 -3.83585 1.59103 3.97323 1.21661
-0.185969
0.698913 -3.23309 2.02226 7.11293 -0.197571 -7.1477 3.2378 0.36412 -9.39496 0.804279
-0.0668433
1.06554 0.850981 -2.33733 -1.42953 -0.533968 1.24718 -2.80483 4.19588 -3.3941 -5.86778
-0.505611
-0.429016 0.309028 5.72393 -1.17551 -2.80158 -2.52444 3.68776 3.77318 -2.07872 0.396265
-0.263746
-1.73829 2.94576 4.88738 -0.199432 3.79087 -3.74165 0.121524 -4.08969 -1.43744 2.21121
-0.20942
2.05429 2.40922 -0.833649 -3.36349 -4.25925 0.691771 -5.4992 -1.32828 -4.48837 0.546301
-0.226963
3.69247 -4.5488 -0.421487 1.46453 1.81571 5.96701 -0.884593 5.79892 2.18219 3.18935
-0.138482
0.275564 5.02661 -4.92808 -2.64434 1.21096 2.3722 -1.79354 3.64633 5.22088 1.83495
0.551525
-3.86848 0.754277 -3.02042 0.672708 0.641494 0.374915 -1.60885 -3.58305 -1.18899 5.15876
0.147742
-1.40615 1.14943 3.05017 2.97036 -3.57352 -3.06386 -5.16175 -0.736222 3.60433 0.906773
0.578924
-4.21777 -1.99635 1.47272 -2.08297 -2.24162 5.43254 -8.70974 -2.1553 2.15004 -0.954708
0.170248
-1.75584 -2.00979 -1.99941 -8.01342 -6.40334 -0.504002 1.3245 2.89245 0.484863 3.86613
-0.0717926
0.52182 1.96815 -0.4598 2.36282 -3.73461 -3.1239 2.23902 -3.72275 -1.24082 -7.15996
0.41875
-2.74568 -0.117993 2.35852 4.97116 -0.0292549 -4.70242 -2.01485 -5.41128 6.37341 -8.303
0.0762884
0.847573 -0.690956 -1.84502 3.9346 -0.809189 -4.43136 -3.27036 2.81523 0.910249 -0.76607
-0.355745
1.24031 1.63649 -3.80717 -0.043196 0.0568894 -0.322003 1.80627 3.47211 -0.316968 0.446816
-0.294842
-2.8467 0.325437 1.30892 -1.3932 0.596034 -0.412132 1.60853 3.1151 0.621278 -1.46767
0.101287
-0.177034 -3.08724 0.444702 -1.30046 -0.777906 -2.45573 -2.78689 -2.97692 -1.0096 -3.14318
-0.910929
5.0327 1.04533 -0.399705 2.70351 4.02003 -2.46518 -0.677757 -4.55939 4.6146 1.68419
0.136008
-7.10041 -1.17597 -5.01236 -1.07831 3.12456 3.40238 5.89718 0.934436 -1.543 6.76956
-0.216273
1.05637 -3.41596 0.242067 -0.325725 0.72309 1.00151 0.22519 3.05858 -2.62901 -3.26916
0.392999
-2.66076 1.42096 -0.481341 0.873736 -3.11357 0.844224 0.437689 -5.18983 1.12958 0.858844
-0.348828
-3.44895 -1.99733 4.73827 2.30278 -2.35954 -3.15316 2.34951 4.57729 2.39955 -2.98051
-0.253425
-0.406843 0.822273 2.3929 0.772163 -1.46849 -1.96212 0.754924 -2.16584 -5.31863 -3.35929
0.352667
-3.48213 -3.04577 -2.22685 4.80843 -4.49691 -0.287495 -1.72235 -0.917446 -4.90695 1.07545
0.196188
0.482577 -1.42143 -3.35577 2.58342 -0.0392554 1.65469 -1.60289 -2.4088 2.98855 -2.58829
-0.176553
1.29222 0.698498 -0.716599 -3.171 -4.46043 1.31829 1.0205 0.21635 -7.18048 -0.448721
0.0223955
2.1027 -2.03974 1.06852 -4.24597 -5.51194 1.77959 1.19635 0.719149 -5.66456 -7.11655
-0.0244596
-2.40886 -2.20014 3.26876 -3.50978 4.81219 0.267891 -2.58245 1.07906 -3.28605 3.33848
0.441473
-4.67394 -0.121375 1.53101 -2.85278 3.60087 3.4406 -1.01696 -3.46108 5.73566 0.220889
0.295828
-2.89214 2.63301 -1.37306 -1.11196 0.363536 -4.63042 -1.50857 1.43838 0.644338 -1.19215
-0.0953745
-0.691548 1.16505 -4.70523 -3.97364 2.64567 2.24474 2.29464 3.49326 -1.01421 -1.27483
-0.207313
2.87089 -1.7429 -5.30376 -0.454373 3.07161 3.5124 0.868057 5.80176 3.00147 0.348328
0.170239
1.208 -0.346332 -3.13451 4.39761 -2.63559 -0.615544 -0.0149725 -0.177272 -2.92982 0.817705
-0.123999
1.83433 -3.02181 -5.77701 -2.82274 -3.86347 0.340575 -0.965625 1.60799 -0.802146 -2.37475
-0.100912
-1.54429 -3.4818 1.82079 -1.08287 1.19627 -0.465087 5.45543 2.56551 2.11184 0.0745947
-0.152421
-1.38227 -3.49689 -0.202944 -3.06339 5.17531 0.487656 7.2708 2.0206 -3.70709 2.46648
-0.262464
-0.279584 1.30957 1.47145 5.12879 -2.47678 1.89072 3.37547 -2.73602 -1.62405 4.66157
-0.859699
2.50971 5.86052 3.44163 -3.36813 -5.6264 2.09813 -0.9007 4.41148 1.30596 2.68782
-0.284934
-3.73191 -0.974861 6.89882 -1.65508 -6.5869 0.183282 -3.94527 7.9642 0.318832 -0.506617
-0.201754
-2.85779 1.89096 2.4188 2.46259 -3.65454 1.89033 -1.79548 1.24413 -1.6674 4.0865
-0.0558536
-2.61746 -1.20005 1.23238 0.27328 -1.33835 0.280925 1.74771 -0.459624 -0.176621 4.96903
-0.400824
-0.574776 4.53317 2.96719 -2.20418 -6.14296 0.358376 -0.413799 0.464492 -1.48301 2.10191
-0.104435
-2.22219 3.02356 0.318102 -5.06988 2.36689 4.79147 -3.42257 -2.02999 -4.10901 -3.12417
-0.067036
1.47476 1.37789 0.813936 -6.41835 -5.62062 1.49198 -1.02117 -1.133 2.85702 -4.63034
-0.0472237
0.574778 -2.10525 0.538943 -4.46336 -1.5314 -0.227765 3.93025 -0.402165 -1.25207 2.51506
-0.0672592
1.45238 -1.33101 -2.54781 -6.93967 2.59027 -0.680431 1.29471 3.2991 2.51878 -0.772455
0.112888
-1.87513 2.69523 -4.23621 -4.67656 2.38859 3.12639 -1.40051 3.68306 2.08448 0.920718
0.373886
1.62498 -2.96364 -10.2342 2.38022 5.33985 -0.329555 -1.01606 0.548678 3.48239 -2.49298
0.0142543
-1.20105 0.712453 2.76687 -5.63825 1.94205 0.56351 -2.57224 -1.03714 -0.463646 0.206856
-0.0813657
-2.81688 4.03811 0.386244 -3.04779 0.602227 -1.46891 -2.89334 0.952455 -2.81958 0.316535
0.128068
-4.57355 -1.1878 -1.11166 -0.962646 2.63452 -2.22069 1.73154 1.64239 -3.20647 2.80358
-0.484127
1.71593 1.83572 3.24806 -0.717456 -3.29746 -8.76976 -1.80676 8.03401 -1.87442 2.65886
-0.312449
2.97109 0.264992 4.06745 -5.32405 8.68143 6.25799 5.16428 -3.44912 -3.29197 1.12723
-0.154319
2.04646 -2.38073 -3.01388 2.54991 3.55833 -6.95735 7.56836 -0.701546 1.59322 -1.06771
-0.124102
5.47941 -0.4415 1.72345 -8.78172 1.64144 -4.00845 -4.80516 -0.564223 -1.08166 -1.94295
0.18783
0.445482 -2.86075 -0.101627 -3.55845 9.63101 -2.06576 -2.86586 4.43971 -1.77081 4.1981
-0.528207
0.640132 3.45785 0.141967 7.91009 0.224221 -2.83407 1.027 1.50151 0.760088 -2.80096
-0.500086
-0.112779 3.25555 -5.31109 0.154677 4.6443 5.5873 -0.335077 5.37371 -5.99251 6.60181
-0.461245
-1.99125 1.66824 3.91268 2.72465 -1.40913 -3.55508 3.47726 1.17106 0.591382 4.25769
-0.435571
2.58531 -0.306858 -0.415217 -1.94065 -5.49753 -2.18435 3.99519 -1.08547 2.91918 1.54898
-0.442017
-0.571315 2.23252 0.136903 2.92661 -2.15029 -8.11953 5.11027 2.93666 -4.88075 0.266208
-0.415022
-0.63961 -2.76632 0.227613 -6.91581 1.36091 0.0200846 3.32493 5.15754 5.38506 2.9776
0.0618698
-0.111744 -0.0664818 -0.407364 -6.40068 -2.11602 -2.23295 -1.72265 -3.47723 -1.04276 -1.19944
-0.504829
0.452179 1.79559 -4.91009 -4.22856 -0.0406772 1.15118 0.473303 0.743318 3.8476 -3.30212
-0.285536
2.50983 2.70023 6.39681 -6.16488 -0.234078 -3.08477 5.72075 -6.91513 0.552844 1.68017
-0.238036
8.002 -3.32375 1.26488 0.710319 8.07837 -0.414938 1.568 -2.27955 -1.78929 4.45567
0.40351
-4.81529 -3.74525 -1.3074 -3.59019 3.23428 1.81699 -0.254993 -2.3983 0.509644 -0.762905
10 10
1 0 0 0.01156 0 0 0 0 0 0
124 0.886404 3.1523 1551.26 0.157971 1542.55 3.15181 0.788967 1.21616 0.065174
