0.98374 17365 484 2 14
100
1.79881 0.443056 0.218156 -0.785914 0.470582 0.542451 0.18834 -0.107133 0.527515 0.465815 0.201692 0.484798 0.314276 -0.447699 0.297589 0.313503 -0.226167 0.0952276 -0.39617 0.0650368 0.00631785 -0.0440963 0.0512812 0.179577 0.294378 -0.0372547 0.259228 0.0705529 0.0796474 0.236102 0.637945 0.314162 -0.103243 0.00624123 0.00944526 -0.412003 0.200859 0.031157 -0.113418 0.128073 -0.0161751 0.100102 -0.12188 0.159814 0.0518432 -0.0812799 -0.123411 0.0429028 -0.16859 0.105652 0.0596724 -0.0887154 0.0584603 -0.255605 0.270459 -0.0637745 0.115173 0.0464962 0.18297 0.290574 0.0416155 0.167975 0.0409889 0.30571 0.193094 0.490452 0.199234 0.00965239 0.0455771 0.146933 0.212295 0.0950768 0.105735 -0.0183082 0.0244163 0.0243532 -0.148648 0.0345765 0.0339159 0.0566157 0.107359 0.129219 0.264739 -0.0312994 0.0187163 0.0393561 -0.0852238 0.0781462 0.0933616 0.0800262 -0.00469777 0.198072 -0.0576171 0.110137 -0.135139 -0.0689042 -0.0130928 0.122026 -0.119298 0.141904
-14.0777
-2.23568 5.58944 -0.460049 -1.88612 1.51092 2.02512 1.60436 1.01855 2.96172 1.25654 
0.15985
0.10197 -2.69824 -2.68479 1.60506 2.29985 -6.46341 -4.30345 3.14598 4.03547 -2.66379 
-1.04827
-0.101501 3.87964 -3.83493 -8.58613 4.06991 -0.518864 1.63331 1.98807 -4.48527 1.89927 
0.0634503
-3.04825 -0.333152 -3.83718 2.16002 -0.206867 -3.53576 8.34446 -3.5329 3.71241 -0.998378 
-2.19329
-3.48978 1.65636 1.16998 5.64664 0.434403 -2.50204 4.8124 -1.79697 -0.270766 -2.29942 
-0.103343
-0.389272 -2.7934 5.42792 3.05846 -1.87536 -2.08148 1.41283 -0.200478 -2.42227 -1.28767 
-0.765722
0.0744834 0.915895 -0.741635 2.36616 -2.81058 -1.01007 3.83637 -2.71069 4.39448 1.70612 
0.0713838
0.867814 6.71529 -3.64655 2.03728 4.57664 -4.3762 -3.69918 -0.766278 3.52226 -5.83979 
-0.167712
4.6753 -0.346646 -1.66379 3.25028 1.71769 -2.47479 -3.97916 -4.17163 -0.840519 -2.97897 
1.31386
-1.55467 0.974741 1.4719 1.00174 -2.30609 4.34351 -3.68615 -5.97154 7.53123 -2.82969 
-0.370755
3.09049 -2.15857 2.34227 -1.17593 3.14799 3.06487 0.117368 -3.33194 -2.55062 2.66889 
0.394026
-0.325299 -4.17659 -5.86521 2.8485 -1.63727 -0.0546687 0.193762 1.26236 -6.5713 -1.69501 
-0.92323
4.55834 -4.74243 1.59838 -1.52882 -5.36073 7.96751 -3.10907 -0.311057 -4.76024 1.65529 
0.293014
-3.55957 -1.97695 -2.03859 0.111609 2.22308 -2.32514 -0.414188 2.37301 -0.0399014 -6.01 
-0.260154
3.07245 1.03797 2.21662 -3.62997 -5.09249 3.73992 0.158862 1.09534 -0.684707 -4.21985 
0.169704
2.91418 -0.926849 -0.465151 6.34081 -1.7076 2.80174 7.16064 -8.92774 -5.64024 -1.5365 
0.459177
-6.97976 -1.89729 0.045045 -0.81655 1.44513 0.382664 1.25866 0.0232038 -0.503683 1.26108 
0.330194
1.3325 1.56952 -2.48836 -1.33977 -9.0116 1.17978 -1.00817 -4.08682 -2.77162 -9.51951 
-0.212491
-4.96118 1.53293 -1.26531 3.03107 -0.0113021 1.48225 0.591938 6.40262 2.15514 3.31236 
0.261381
-0.201019 -2.22368 -1.96798 -0.787116 6.42189 -1.25293 -3.54659 -4.86141 -0.262384 -2.51018 
-0.0408433
1.41293 2.62839 -1.57887 4.21299 -0.457274 0.627987 -0.837608 -6.3422 4.81048 3.6952 
0.497297
-3.10664 -2.51909 -5.58129 -4.94457 2.61405 -1.0074 -1.30828 -3.91894 -2.65356 6.83389 
0.269478
0.429532 -1.66621 -4.91748 -6.63908 -0.379918 -0.100486 -7.38955 -0.94323 1.91963 2.46902 
-0.147718
2.19699 -0.395636 -0.496967 -0.577657 3.27525 3.42864 -4.3376 -0.363019 5.12585 -2.31878 
-0.340171
3.39746 0.612407 -4.18131 -3.66412 1.82449 5.07663 0.050246 4.07844 7.6101 -3.15347 
0.0331496
-1.17157 -3.15619 1.8834 0.812924 4.14978 -0.681013 0.541721 -0.304038 -2.73009 6.91782 
0.115856
0.210199 0.36909 -1.01541 4.65744 6.6304 -1.3599 -0.174493 0.647696 -2.28002 3.87462 
-0.467558
0.22855 -2.56591 -0.833696 6.33889 -3.49735 1.82981 -2.5348 5.2863 0.620277 -0.766735 
-0.307864
3.78861 -1.0691 -1.11392 6.66358 5.06216 -0.542751 -1.1865 -0.343888 -5.12219 0.597101 
-0.0384494
0.0501554 -3.09863 -0.222104 -6.86745 0.308731 -0.154766 -0.179 0.956823 -1.12162 -1.04897 
0.404179
0.425761 -1.58566 -0.21641 1.84813 -6.90759 -5.84834 -7.36558 2.16852 -1.46277 -4.91942 
-0.980571
0.608923 -2.59425 1.57654 -1.1092 -3.14811 0.151128 -3.19411 2.10976 -1.60562 3.01638 
0.0886232
-0.765483 2.99459 1.43665 3.87258 -1.58139 -4.39104 2.31634 -5.9057 0.0268059 -0.0287139 
0.0988663
-0.333113 -3.0121 -2.36578 -4.59599 -0.996698 -5.06823 -2.61006 0.0365549 2.85994 -1.08032 
-0.00929157
0.834664 2.45129 -1.23031 1.77775 -3.43665 0.826594 -3.77603 0.275683 -8.21208 2.07549 
-0.423844
-2.01886 -2.82171 4.89737 -3.74216 -2.16209 -3.65325 4.87508 -0.404262 -0.16373 3.82604 
-1.36007
3.60504 -0.475819 1.45215 3.88801 4.6775 -1.60933 0.127135 3.12012 1.42333 -1.43823 
-0.599069
-0.158708 -4.38169 -4.82634 -0.898692 -2.80243 -5.79267 3.42934 5.30728 5.46798 3.17515 
-0.857678
1.39054 1.64177 5.44123 3.5277 -4.82337 -0.480308 -1.10269 2.98874 0.349141 -2.26463 
-0.343997
-1.81053 2.8059 -2.42765 2.9097 2.4078 1.22794 0.886422 -1.57728 3.68925 -0.959096 
-0.345153
1.45317 -4.54197 1.32789 1.96049 2.93713 -2.4652 2.5605 -1.15757 1.40757 0.619113 
-0.16402
1.3936 -3.74155 -5.62616 -2.31337 4.81763 3.21783 0.0678017 1.46086 -5.4012 1.35326 
0.180956
-2.02262 0.386288 0.858115 2.76135 -0.820091 -2.80265 -2.56554 -0.785782 2.50781 -5.83386 
0.0209424
0.266563 -6.62002 -3.22764 0.527613 5.57435 -1.54799 0.451915 1.75616 -1.71832 -0.500952 
-0.01915
1.57251 3.58532 0.993528 2.34247 4.50745 -0.052147 -3.93298 -2.66519 -2.4963 -3.76129 
0.0386812
-2.04254 -1.29777 1.24657 -2.59066 -1.63365 -1.80268 -0.64297 0.405166 -1.42643 -2.78327 
0.0895988
-4.58606 1.42148 -0.324111 1.29411 -3.01609 -0.439796 0.680815 0.129846 -3.62076 -2.28932 
0.217637
-6.56385 -4.53967 -6.44743 4.02066 -2.92576 -3.74896 4.5226 -0.310481 1.09197 -2.96085 
-0.379945
-0.174685 -1.83348 3.29227 -5.01572 1.0151 4.2133 -1.72627 3.26793 -0.531286 -4.79565 
-0.442502
0.275696 1.99288 0.669308 1.74823 1.09362 -3.38883 -0.121843 -1.63964 1.11079 3.40147 
-0.110448
3.8888 3.24125 -1.13565 -6.7559 -2.34374 -1.98192 4.09064 -7.60059 -3.17361 -3.56077 
-0.22764
0.138317 1.04858 -1.56966 4.56125 -5.65792 -3.22434 3.89474 -0.0328301 3.10387 -3.97107 
-0.123115
1.21825 0.712771 -1.5751 -2.31671 2.98783 0.875211 -1.42213 -2.73132 1.57975 3.44041 
-0.387796
-3.28526 -0.134368 7.74316 -0.237125 0.428207 -1.22495 2.15923 1.24966 -1.99787 -4.19942 
-0.682935
6.37891 -1.89013 -3.21135 -5.25242 -3.68327 4.66819 3.34679 -2.52441 -1.49281 -5.43731 
0.118842
-3.16739 -0.191489 2.53423 -6.4834 -0.423923 -0.81233 -0.690472 -0.0694497 -0.374591 -6.77394 
0.252104
-0.60768 0.792534 -8.26458 -1.67021 3.92296 -1.16606 2.14711 -0.873026 -1.24266 2.29872 
-0.323563
3.12272 2.09474 4.06913 -6.9449 -3.02967 -6.30294 1.12824 0.218842 0.366046 -8.06255 
-0.104662
4.80475 1.40665 -5.49115 1.42142 7.93613 -4.67799 -1.85715 1.85387 -0.565043 0.482886 
0.421804
-3.59535 -8.70247 -3.22779 3.96894 0.333474 -2.70356 -2.51271 2.73669 1.56298 -2.84013 
-0.146347
-1.82221 2.2122 1.02979 -4.06412 -1.20234 -2.69732 -3.03548 -0.927965 -0.545346 1.60506 
-0.34179
4.79514 -4.96731 -0.85858 0.634521 2.74609 2.15356 2.49576 -0.678995 -4.80374 -3.62308 
-0.213029
0.829409 -0.533124 7.38928 -2.33234 6.46851 3.30197 3.45151 -2.10638 -3.17087 4.84551 
0.0770339
0.221215 6.32714 2.1389 3.30118 -1.50412 2.11513 -5.54615 1.22 -3.85899 -3.24111 
-0.191493
-4.047 0.24812 -4.41849 -5.05084 3.87158 -7.57711 -0.515172 1.36646 -0.605673 -0.301728 
-0.0064333
-0.601607 -1.55204 3.40042 -7.83111 5.91616 -4.06419 2.64555 -0.70849 -1.57676 -6.57825 
-1.3903
5.2209 7.03181 2.46666 -0.4088 -4.88714 -0.908473 -1.06309 7.48931 -0.26293 -3.8938 
-0.423561
-0.179338 -0.579664 -0.770773 -3.07279 5.7301 1.83495 6.71657 -1.85504 1.72223 10.5276 
-0.428075
5.8921 0.475661 0.359573 1.7266 -2.37622 7.11268 0.870181 -3.17484 3.10943 1.78477 
-0.265199
3.88617 -2.31619 -2.44791 1.94599 5.3904 -3.61702 -2.47394 3.09414 0.577191 -2.26662 
0.130431
0.931534 -2.42107 -0.965197 -0.187634 -6.87553 1.60771 -4.14424 1.3512 0.875427 1.16225 
-0.107486
-5.41145 2.35428 -6.17994 0.105506 0.199801 -3.05826 5.51096 -0.657726 -3.80424 4.13878 
0.271362
-1.86184 -1.81844 -6.81498 -2.70082 -0.247812 2.44307 -2.27849 -0.763915 -2.27991 -3.40643 
0.0662533
-2.2433 4.1818 -3.31585 -1.75177 -5.38512 6.70571 1.75165 -1.74574 1.55894 3.68453 
-0.0910409
1.88275 5.68976 4.02171 -3.60446 -1.2212 -5.44962 -4.54713 -1.07377 -4.83946 -2.54809 
0.0116502
0.735129 7.16847 2.00385 2.48714 -4.62085 -3.93787 -1.09583 -3.07892 3.27971 -2.16708 
-0.00695783
-5.18385 -6.29912 5.57407 0.238932 -4.29049 -1.01495 -0.929894 2.67332 -5.9791 -5.40105 
0.431795
-5.25211 -2.42568 -3.87244 -2.38947 0.274503 -0.580232 -0.72412 -3.11994 5.11692 1.13379 
-0.0474238
6.62463 1.52291 -2.58654 1.72601 3.98693 6.80623 -2.78798 -3.29539 -5.67789 0.136734 
0.105015
2.39096 2.76803 5.35298 3.89394 3.79854 -3.72416 -3.54733 -7.68356 0.0885905 2.35985 
0.10744
1.59275 -4.26089 1.08978 0.856492 9.34766 -2.93653 2.53044 -5.90239 -0.942044 -1.25725 
-0.0475104
4.59894 -2.40154 1.47002 1.15456 -4.68424 -7.8316 -2.66308 -3.13672 -2.38157 -0.260326 
-0.00958016
3.22531 -3.02267 0.454452 2.90814 1.42004 -0.0604094 -2.45748 -0.550439 2.90181 2.2153 
-0.399121
3.46439 2.74968 -0.00640276 -5.8833 0.861153 2.56752 4.38963 -1.84169 -5.36304 -0.362926 
-0.240224
-3.73917 8.94141 2.58398 3.13009 6.401 1.23929 0.78309 -0.876011 1.95668 -0.814395 
-0.616263
3.90351 -1.76924 -2.89697 -5.90619 0.423206 -5.17983 3.96912 3.9929 4.21432 3.04184 
0.0120955
-7.40565 -0.602158 2.83639 -4.43062 -4.47676 1.20398 -4.44423 3.08128 5.10837 1.17187 
-0.403394
0.147969 -2.58166 -5.61617 -2.76842 2.9056 5.72771 4.11857 3.34415 -2.05769 1.27646 
-0.167321
3.24687 -4.18475 -5.23076 1.91129 2.00219 -6.97236 2.15221 -0.176172 -0.680713 4.95369 
-0.0585674
-3.28372 -5.04651 3.32323 3.06012 4.42622 0.381718 1.68886 1.34642 -6.6783 -2.1961 
0.0972898
-0.316157 6.61838 -4.40828 -1.11689 1.98556 3.0601 3.32366 -1.11986 -5.44018 2.26782 
0.112088
1.26374 2.39266 -2.4508 -2.58561 0.277601 -6.02507 -4.42544 1.35061 3.01097 1.32142 
-0.337899
0.779253 1.68901 -3.30953 4.27519 -3.16703 -0.683906 3.20347 1.39559 -0.734047 3.66978 
-0.380609
4.28231 -4.33122 -4.99778 -7.00304 5.21589 -5.17139 0.191205 1.31824 -1.26331 6.88475 
0.0263416
0.73027 2.327 3.24996 -1.70489 -5.14561 -4.84946 -2.94859 -2.52064 1.55271 -6.39328 
-0.414838
-0.491779 1.30248 -6.94809 1.32592 3.48032 5.26773 4.95483 5.51744 0.567075 -4.83271 
-0.581554
4.50015 1.56905 -1.15498 -4.4852 -1.22282 -2.15943 0.184333 1.61304 -1.74786 -0.352593 
-0.275185
-0.815935 1.58651 -3.79965 -5.29086 -1.93304 -0.253898 1.13992 1.88412 3.67763 -4.95588 
-0.054623
-2.54273 1.65284 2.9624 4.47281 6.04786 -4.14411 2.95051 -3.11964 8.64598 -5.69929 
-0.0105533
-2.23367 -1.67915 -2.77772 0.349928 -1.24836 -0.221132 -4.48385 0.317152 -0.939952 1.37074 
10 10
1 0 0 0.0105669 0 0.00142105 0 0 0 0
123 0.0707 3.14487 1397.33 15.7155 1392.68 3.14386 0.432786 1.06161 0.018534
